digraph Tree {
0 [label="X[0] <= 3.5404\ngini = 0.00199600599201\nsamples = 1001000", shape="box"] ;
1 [label="X[1] <= 3.8039\ngini = 0.000603754216958\nsamples = 1000105", shape="box"] ;
0 -> 1 ;
2 [label="X[2] <= 4.3726\ngini = 0.000254000757904\nsamples = 999870", shape="box"] ;
1 -> 2 ;
3 [label="gini = 0.0002\nsamples = 999813\nvalue = [  9.99738000e+05   7.50000000e+01]", shape="box"] ;
2 -> 3 ;
4 [label="gini = 0.1600\nsamples = 57\nvalue = [  5.  52.]", shape="box"] ;
2 -> 4 ;
5 [label="X[2] <= 1.9196\ngini = 0.380262562245\nsamples = 235", shape="box"] ;
1 -> 5 ;
6 [label="gini = 0.1189\nsamples = 63\nvalue = [ 59.   4.]", shape="box"] ;
5 -> 6 ;
7 [label="gini = 0.0116\nsamples = 172\nvalue = [   1.  171.]", shape="box"] ;
5 -> 7 ;
8 [label="X[2] <= 1.7905\ngini = 0.343325114697\nsamples = 895", shape="box"] ;
0 -> 8 ;
9 [label="X[1] <= 2.7528\ngini = 0.0764337516398\nsamples = 201", shape="box"] ;
8 -> 9 ;
10 [label="gini = 0.0000\nsamples = 193\nvalue = [ 193.    0.]", shape="box"] ;
9 -> 10 ;
11 [label="gini = 0.0000\nsamples = 8\nvalue = [ 0.  8.]", shape="box"] ;
9 -> 11 ;
12 [label="X[1] <= 0.9002\ngini = 0.0114609373054\nsamples = 694", shape="box"] ;
8 -> 12 ;
13 [label="gini = 0.0000\nsamples = 3\nvalue = [ 3.  0.]", shape="box"] ;
12 -> 13 ;
14 [label="gini = 0.0029\nsamples = 691\nvalue = [   1.  690.]", shape="box"] ;
12 -> 14 ;
}